[
  {
    "fold_id": 1,
    "fold_label": "subject=1",
    "model_name": "SignalJEPA_PreLocal",
    "strategy": "new",
    "warmup_epochs": 10,
    "n_train": 1795,
    "n_test": 449,
    "train_class_counts": [
      880,
      915
    ],
    "test_class_counts": [
      220,
      229
    ],
    "pretrained_load": {
      "loading_path": "from_pretrained",
      "repo_id": "braindecode/signal-jepa_without-chans",
      "mode": "from_pretrained",
      "model_name": "SignalJEPA_PreLocal"
    },
    "phase_1_trainable_groups": [
      "spatial_conv.",
      "final_layer."
    ],
    "phase_1_trainable_params": 1782,
    "phase_1_trainable_names": [
      "spatial_conv.1.weight",
      "spatial_conv.1.bias",
      "final_layer.1.weight",
      "final_layer.1.bias"
    ],
    "phase_2_trainable_groups": null,
    "phase_2_trainable_params": null,
    "phase_2_trainable_names": null,
    "final_trainable_parameters": [
      {
        "name": "feature_encoder.1.0.weight",
        "shape": [
          8,
          1,
          32
        ],
        "num_params": 256,
        "requires_grad": false
      },
      {
        "name": "feature_encoder.1.2.weight",
        "shape": [
          8
        ],
        "num_params": 8,
        "requires_grad": false
      },
      {
        "name": "feature_encoder.1.2.bias",
        "shape": [
          8
        ],
        "num_params": 8,
        "requires_grad": false
      },
      {
        "name": "feature_encoder.2.0.weight",
        "shape": [
          16,
          8,
          2
        ],
        "num_params": 256,
        "requires_grad": false
      },
      {
        "name": "feature_encoder.3.0.weight",
        "shape": [
          32,
          16,
          2
        ],
        "num_params": 1024,
        "requires_grad": false
      },
      {
        "name": "feature_encoder.4.0.weight",
        "shape": [
          64,
          32,
          2
        ],
        "num_params": 4096,
        "requires_grad": false
      },
      {
        "name": "feature_encoder.5.0.weight",
        "shape": [
          64,
          64,
          2
        ],
        "num_params": 8192,
        "requires_grad": false
      },
      {
        "name": "spatial_conv.1.weight",
        "shape": [
          4,
          1,
          60,
          1
        ],
        "num_params": 240,
        "requires_grad": true
      },
      {
        "name": "spatial_conv.1.bias",
        "shape": [
          4
        ],
        "num_params": 4,
        "requires_grad": true
      },
      {
        "name": "final_layer.1.weight",
        "shape": [
          2,
          768
        ],
        "num_params": 1536,
        "requires_grad": true
      },
      {
        "name": "final_layer.1.bias",
        "shape": [
          2
        ],
        "num_params": 2,
        "requires_grad": true
      }
    ],
    "n_trainable_params_final": 1782,
    "best_epoch": 50,
    "stopped_epoch": 50,
    "best_valid_loss": 0.3817115720766168,
    "accuracy": 0.8173719376391982,
    "balanced_accuracy": 0.81729853116316,
    "confusion_matrix": [
      [
        179,
        41
      ],
      [
        41,
        188
      ]
    ],
    "prediction_histogram": [
      220,
      229
    ],
    "collapse_diagnostics": {
      "prediction_histogram": [
        220,
        229
      ],
      "collapse_ratio": 0.51002227,
      "collapse_threshold": 0.9,
      "collapse_flag": false,
      "majority_predicted_class": 1
    },
    "probability_diagnostics": {
      "available": true,
      "probability_shape": [
        449,
        2
      ],
      "mean_probability_by_class": [
        0.49677607,
        0.50322393
      ],
      "std_probability_by_class": [
        0.36853142,
        0.36853141
      ],
      "mean_confidence": 0.83794992,
      "std_confidence": 0.14702261,
      "mean_prediction_entropy": 0.36280643,
      "mean_normalized_prediction_entropy": 0.52341903,
      "mean_predicted_class_probability": 0.83794992
    },
    "spatial_conv_initial": {
      "available": true,
      "parameter_name": "spatial_conv.1.weight",
      "raw_weight_shape": [
        4,
        1,
        60,
        1
      ],
      "weight_matrix_shape": [
        4,
        60
      ],
      "n_virtual_filters": 4,
      "n_input_channels": 60,
      "channel_names": [
        "Fp1",
        "Fpz",
        "Fp2",
        "AF3",
        "AF4",
        "F7",
        "F5",
        "F3",
        "F1",
        "Fz",
        "F2",
        "F4",
        "F6",
        "F8",
        "FT7",
        "FC5",
        "FC3",
        "FC1",
        "FCz",
        "FC2",
        "FC4",
        "FC6",
        "FT8",
        "T7",
        "C5",
        "C3",
        "C1",
        "Cz",
        "C2",
        "C4",
        "C6",
        "T8",
        "TP7",
        "CP5",
        "CP3",
        "CP1",
        "CPz",
        "CP2",
        "CP4",
        "CP6",
        "TP8",
        "P7",
        "P5",
        "P3",
        "P1",
        "Pz",
        "P2",
        "P4",
        "P6",
        "P8",
        "PO7",
        "PO5",
        "PO3",
        "POz",
        "PO4",
        "PO6",
        "PO8",
        "O1",
        "Oz",
        "O2"
      ],
      "weight_matrix": [
        [
          0.09860362,
          0.02757107,
          -0.00453342,
          -0.04340911,
          0.02576071,
          0.06880875,
          0.0960246,
          0.04289424,
          -0.07277799,
          0.09152263,
          0.05239789,
          -0.08542095,
          0.01087321,
          0.12446697,
          -0.08788451,
          0.11290868,
          -0.05113648,
          0.00419681,
          0.00290361,
          0.03044201,
          -0.10243709,
          0.11921524,
          -0.03911539,
          0.04228823,
          0.10331213,
          0.08389606,
          -0.01665223,
          0.01591225,
          -0.03120496,
          0.06290273,
          -0.09196522,
          0.09813812,
          0.01074813,
          0.00808492,
          -0.07376412,
          -0.10413817,
          -0.062893,
          -0.06088749,
          -0.12183961,
          0.12901251,
          0.03479216,
          -0.07470614,
          0.05674176,
          0.12395246,
          -0.0290658,
          -0.05614749,
          -0.10394765,
          0.11709003,
          -0.08659275,
          0.09497562,
          -0.0239225,
          -0.07232979,
          0.01411721,
          -0.12062103,
          -0.10999423,
          0.0829183,
          0.06248488,
          0.06250216,
          0.12028129,
          -0.08014211
        ],
        [
          0.01009926,
          0.0087412,
          -0.00977896,
          0.08421583,
          0.04553671,
          0.11333744,
          0.0909525,
          -0.11484723,
          -0.11017934,
          0.05184568,
          0.05248089,
          0.11000124,
          -0.00147277,
          0.10807167,
          -0.01666692,
          -0.03505213,
          -0.07999703,
          0.09310645,
          0.0278822,
          0.12351443,
          0.03080638,
          -0.09881285,
          0.02723894,
          -0.00470403,
          -0.04697136,
          0.03006224,
          0.10474245,
          0.03595626,
          -0.04673435,
          0.08497576,
          -0.04740096,
          0.07026555,
          0.02335858,
          0.03381139,
          0.10128237,
          0.09403583,
          0.12373872,
          0.06473045,
          -0.09133916,
          0.06924331,
          -0.04601314,
          -0.05847561,
          0.0647402,
          0.08305502,
          -0.07227547,
          0.11441143,
          -0.05989631,
          -0.07397005,
          -0.10722409,
          -0.05097675,
          0.07102665,
          0.05539307,
          0.02983716,
          -0.09010918,
          -0.02183408,
          -0.11826871,
          -0.11102631,
          -0.03497604,
          -0.12786898,
          -0.03197727
        ],
        [
          0.04709473,
          0.02920434,
          -0.05418927,
          0.10976914,
          -0.12658985,
          0.00878382,
          -0.04467642,
          -0.04240006,
          -0.00666616,
          0.10525598,
          -0.0294892,
          0.08200011,
          0.09430724,
          -0.06121391,
          -0.00176534,
          0.06909451,
          0.10997215,
          0.08174603,
          -0.02376501,
          -0.07964359,
          -0.0774474,
          0.01633754,
          0.11415614,
          -0.06285675,
          0.0570755,
          0.02552816,
          0.07502529,
          -0.01806435,
          -0.05698903,
          -0.06936607,
          -0.03224508,
          0.09792642,
          -0.01748952,
          -0.00407872,
          -0.08633603,
          -0.05719286,
          0.07931304,
          0.02280134,
          -0.04839899,
          0.01430883,
          0.07498378,
          -0.10826348,
          -0.05108214,
          0.00344549,
          -0.0129722,
          0.12906928,
          0.10434645,
          -0.02263926,
          -0.11671187,
          -0.09633882,
          0.04830891,
          0.08607472,
          -0.08869911,
          0.01658894,
          -0.09075859,
          0.06495057,
          0.11313045,
          -0.09842119,
          -0.03621754,
          0.08533759
        ],
        [
          0.12180255,
          -0.00603986,
          0.11095531,
          -0.12369663,
          0.10324408,
          -0.04422085,
          -0.06285778,
          -0.00306022,
          -0.12783846,
          0.03429446,
          -0.01821135,
          -0.02381252,
          -0.07222682,
          0.06508011,
          -0.10177355,
          0.01723605,
          -0.03398101,
          0.05306143,
          0.003645,
          0.08476456,
          0.00781615,
          -0.10806764,
          -0.04963005,
          0.0397224,
          -0.03605769,
          -0.05288761,
          0.1004701,
          -0.08451293,
          -0.03914668,
          -0.02354313,
          -0.07526991,
          -0.00433752,
          0.01454157,
          -0.0221094,
          -0.11260715,
          0.03097835,
          0.1044676,
          -0.05688865,
          -0.01832165,
          -0.08687175,
          0.07566848,
          -0.05502742,
          -0.08429559,
          0.12045878,
          -0.05579505,
          0.04463868,
          -0.09179308,
          0.07205968,
          -0.04402351,
          0.1097022,
          0.02096228,
          0.10205078,
          0.03712666,
          0.10450509,
          0.01452936,
          -0.0240638,
          -0.08278716,
          0.02288513,
          -0.1179,
          0.06873485
        ]
      ],
      "weight_matrix_norm": [
        [
          0.76429504,
          0.21370848,
          -0.03513936,
          -0.33647209,
          0.19967607,
          0.53334945,
          0.7443046,
          0.33248127,
          -0.5641157,
          0.709409,
          0.40614581,
          -0.66211373,
          0.0842803,
          0.96476668,
          -0.68120921,
          0.87517619,
          -0.39636838,
          0.03253024,
          0.02250643,
          0.23596172,
          -0.79400897,
          0.92405951,
          -0.30319068,
          0.32778394,
          0.80079162,
          0.65029395,
          -0.12907457,
          0.12333881,
          -0.24187547,
          0.48757079,
          -0.71283954,
          0.76068687,
          0.08331078,
          0.06266774,
          -0.5717594,
          -0.80719429,
          -0.48749539,
          -0.47195029,
          -0.9444015,
          1.0,
          0.26968047,
          -0.57906121,
          0.43981594,
          0.96077865,
          -0.22529446,
          -0.43520969,
          -0.80571765,
          0.90758663,
          -0.67119652,
          0.73617375,
          -0.18542773,
          -0.56064165,
          0.10942513,
          -0.93495607,
          -0.85258579,
          0.64271522,
          0.48433191,
          0.4844659,
          0.93232274,
          -0.62119645
        ],
        [
          0.07898133,
          0.0683606,
          -0.07647642,
          0.65861034,
          0.35612008,
          0.88635606,
          0.71129447,
          -0.89816332,
          -0.8616581,
          0.40545943,
          0.41042706,
          0.8602652,
          -0.01151781,
          0.84517503,
          -0.13034372,
          -0.27412534,
          -0.62561715,
          0.72813946,
          0.21805291,
          0.96594518,
          0.24092142,
          -0.77276635,
          0.21302223,
          -0.03678788,
          -0.36733973,
          0.23510192,
          0.81913888,
          0.28119615,
          -0.3654862,
          0.6645534,
          -0.37069944,
          0.54951203,
          0.18267591,
          0.26442215,
          0.79207933,
          0.73540771,
          0.96769929,
          0.50622481,
          -0.71431839,
          0.54151767,
          -0.359846,
          -0.45730877,
          0.50630105,
          0.6495322,
          -0.56523073,
          0.89475513,
          -0.46841934,
          -0.57848316,
          -0.83854657,
          -0.39866391,
          0.55546427,
          0.43320179,
          0.23334166,
          -0.70469934,
          -0.17075349,
          -0.92492104,
          -0.86828178,
          -0.2735303,
          -1.0,
          -0.25007838
        ],
        [
          0.36487949,
          0.22626869,
          -0.41984639,
          0.85046679,
          -0.9807899,
          0.06805506,
          -0.34614295,
          -0.32850623,
          -0.05164793,
          0.81549978,
          -0.22847578,
          0.63531852,
          0.73067147,
          -0.47427171,
          -0.01367746,
          0.53532881,
          0.85203964,
          0.63334996,
          -0.18412602,
          -0.61706078,
          -0.60004514,
          0.12657964,
          0.88445628,
          -0.48700005,
          0.44220823,
          0.19778651,
          0.58127922,
          -0.13995855,
          -0.44153827,
          -0.53743279,
          -0.24982771,
          0.75871205,
          -0.13550492,
          -0.03160098,
          -0.66891229,
          -0.44311753,
          0.61449975,
          0.17665969,
          -0.37498459,
          0.11086158,
          0.58095753,
          -0.83880126,
          -0.39577302,
          0.0266949,
          -0.10050569,
          1.0,
          0.80845302,
          -0.17540394,
          -0.90425754,
          -0.74641162,
          0.37428665,
          0.66688776,
          -0.68722093,
          0.12852742,
          -0.70317733,
          0.50322253,
          0.87650949,
          -0.76254541,
          -0.28060541,
          0.66117662
        ],
        [
          0.9527849,
          -0.04724601,
          0.86793375,
          -0.96760106,
          0.80761361,
          -0.34591192,
          -0.49169689,
          -0.02393819,
          -1.0,
          0.268264,
          -0.14245595,
          -0.18627037,
          -0.5649851,
          0.50908077,
          -0.79611051,
          0.13482682,
          -0.2658121,
          0.41506621,
          0.02851257,
          0.66305989,
          0.06114084,
          -0.84534526,
          -0.38822469,
          0.31072336,
          -0.28205666,
          -0.41370657,
          0.78591448,
          -0.66109163,
          -0.30621988,
          -0.18416315,
          -0.58878922,
          -0.03392969,
          0.11374954,
          -0.17294799,
          -0.88085502,
          0.24232419,
          0.81718445,
          -0.44500422,
          -0.14331874,
          -0.67954314,
          0.59190702,
          -0.43044493,
          -0.6593914,
          0.94227338,
          -0.43644965,
          0.34918034,
          -0.71803957,
          0.56367761,
          -0.34436825,
          0.85813141,
          0.16397478,
          0.79827917,
          0.29041854,
          0.8174777,
          0.11365408,
          -0.18823601,
          -0.64759195,
          0.17901599,
          -0.92225766,
          0.5376696
        ]
      ],
      "channel_abs_mean": [
        0.06940004,
        0.01788912,
        0.04486424,
        0.09027268,
        0.07528284,
        0.05878771,
        0.07362783,
        0.05080044,
        0.07936548,
        0.07072969,
        0.03814483,
        0.07530871,
        0.04472001,
        0.08970816,
        0.05202258,
        0.05857284,
        0.06877166,
        0.05802768,
        0.01454896,
        0.07959115,
        0.05462676,
        0.08560832,
        0.05753513,
        0.03739285,
        0.06085417,
        0.04809352,
        0.07422252,
        0.03861145,
        0.04351876,
        0.06019692,
        0.06172029,
        0.0676669,
        0.01653445,
        0.01702111,
        0.09349742,
        0.0715863,
        0.09260309,
        0.05132699,
        0.06997485,
        0.0748591,
        0.05786439,
        0.07411816,
        0.06421492,
        0.08272794,
        0.04252713,
        0.08606672,
        0.08999588,
        0.07143976,
        0.08863805,
        0.08799835,
        0.04105509,
        0.07896209,
        0.04244503,
        0.08295606,
        0.05927907,
        0.07255035,
        0.0923572,
        0.05469613,
        0.10056695,
        0.06654796
      ],
      "channel_signed_mean": [
        0.06940004,
        0.01486919,
        0.01061342,
        0.00671981,
        0.01198791,
        0.03667729,
        0.01986073,
        -0.02935332,
        -0.07936548,
        0.07072969,
        0.01429456,
        0.02069197,
        0.00787022,
        0.05910121,
        -0.05202258,
        0.04104678,
        -0.01378559,
        0.05802768,
        0.00266645,
        0.03976935,
        -0.03531549,
        -0.01783193,
        0.01316241,
        0.00361246,
        0.01933965,
        0.02164971,
        0.0658964,
        -0.01267719,
        -0.04351876,
        0.01374232,
        -0.06172029,
        0.06549814,
        0.00778969,
        0.00392705,
        -0.04285623,
        -0.00907921,
        0.06115659,
        -0.00756109,
        -0.06997485,
        0.03142323,
        0.03485782,
        -0.07411816,
        -0.00347394,
        0.08272794,
        -0.04252713,
        0.05799298,
        -0.03782265,
        0.0231351,
        -0.08863805,
        0.01434056,
        0.02909384,
        0.0427972,
        -0.00190452,
        -0.02240905,
        -0.05201438,
        0.00138409,
        -0.00454953,
        -0.01200248,
        -0.04042631,
        0.01048827
      ],
      "channel_l2": [
        0.08197324,
        0.02077225,
        0.06197527,
        0.09529793,
        0.08576354,
        0.0700226,
        0.0765509,
        0.06487861,
        0.09195546,
        0.07635329,
        0.04092997,
        0.08168241,
        0.0596468,
        0.0937471,
        0.06775405,
        0.06900752,
        0.07460403,
        0.06742468,
        0.01846558,
        0.08618391,
        0.06614678,
        0.09476522,
        0.06664596,
        0.04283475,
        0.06602552,
        0.05336449,
        0.08211473,
        0.04747317,
        0.0445479,
        0.06431089,
        0.06597302,
        0.07774435,
        0.01716455,
        0.02070047,
        0.09464875,
        0.07732751,
        0.0954867,
        0.05397578,
        0.08041436,
        0.08542585,
        0.06057225,
        0.0770542,
        0.06543327,
        0.09589648,
        0.04834752,
        0.0933997,
        0.09179711,
        0.07887772,
        0.09294493,
        0.09073965,
        0.04579912,
        0.08081339,
        0.05083176,
        0.09201305,
        0.07249773,
        0.0800946,
        0.09471459,
        0.06192799,
        0.10727324,
        0.06973573
      ],
      "top_channels_by_abs_weight": [
        {
          "rank": 1,
          "channel_index": 58,
          "channel_name": "Oz",
          "abs_mean_weight": 0.10056695,
          "signed_mean_weight": -0.04042631,
          "l2_weight": 0.10727324
        },
        {
          "rank": 2,
          "channel_index": 34,
          "channel_name": "CP3",
          "abs_mean_weight": 0.09349742,
          "signed_mean_weight": -0.04285623,
          "l2_weight": 0.09464875
        },
        {
          "rank": 3,
          "channel_index": 36,
          "channel_name": "CPz",
          "abs_mean_weight": 0.09260309,
          "signed_mean_weight": 0.06115659,
          "l2_weight": 0.0954867
        },
        {
          "rank": 4,
          "channel_index": 56,
          "channel_name": "PO8",
          "abs_mean_weight": 0.0923572,
          "signed_mean_weight": -0.00454953,
          "l2_weight": 0.09471459
        },
        {
          "rank": 5,
          "channel_index": 3,
          "channel_name": "AF3",
          "abs_mean_weight": 0.09027268,
          "signed_mean_weight": 0.00671981,
          "l2_weight": 0.09529793
        },
        {
          "rank": 6,
          "channel_index": 46,
          "channel_name": "P2",
          "abs_mean_weight": 0.08999588,
          "signed_mean_weight": -0.03782265,
          "l2_weight": 0.09179711
        },
        {
          "rank": 7,
          "channel_index": 13,
          "channel_name": "F8",
          "abs_mean_weight": 0.08970816,
          "signed_mean_weight": 0.05910121,
          "l2_weight": 0.0937471
        },
        {
          "rank": 8,
          "channel_index": 48,
          "channel_name": "P6",
          "abs_mean_weight": 0.08863805,
          "signed_mean_weight": -0.08863805,
          "l2_weight": 0.09294493
        },
        {
          "rank": 9,
          "channel_index": 49,
          "channel_name": "P8",
          "abs_mean_weight": 0.08799835,
          "signed_mean_weight": 0.01434056,
          "l2_weight": 0.09073965
        },
        {
          "rank": 10,
          "channel_index": 45,
          "channel_name": "Pz",
          "abs_mean_weight": 0.08606672,
          "signed_mean_weight": 0.05799298,
          "l2_weight": 0.0933997
        },
        {
          "rank": 11,
          "channel_index": 21,
          "channel_name": "FC6",
          "abs_mean_weight": 0.08560832,
          "signed_mean_weight": -0.01783193,
          "l2_weight": 0.09476522
        },
        {
          "rank": 12,
          "channel_index": 53,
          "channel_name": "POz",
          "abs_mean_weight": 0.08295606,
          "signed_mean_weight": -0.02240905,
          "l2_weight": 0.09201305
        },
        {
          "rank": 13,
          "channel_index": 43,
          "channel_name": "P3",
          "abs_mean_weight": 0.08272794,
          "signed_mean_weight": 0.08272794,
          "l2_weight": 0.09589648
        },
        {
          "rank": 14,
          "channel_index": 19,
          "channel_name": "FC2",
          "abs_mean_weight": 0.07959115,
          "signed_mean_weight": 0.03976935,
          "l2_weight": 0.08618391
        },
        {
          "rank": 15,
          "channel_index": 8,
          "channel_name": "F1",
          "abs_mean_weight": 0.07936548,
          "signed_mean_weight": -0.07936548,
          "l2_weight": 0.09195546
        }
      ]
    },
    "spatial_conv": {
      "available": true,
      "parameter_name": "spatial_conv.1.weight",
      "raw_weight_shape": [
        4,
        1,
        60,
        1
      ],
      "weight_matrix_shape": [
        4,
        60
      ],
      "n_virtual_filters": 4,
      "n_input_channels": 60,
      "channel_names": [
        "Fp1",
        "Fpz",
        "Fp2",
        "AF3",
        "AF4",
        "F7",
        "F5",
        "F3",
        "F1",
        "Fz",
        "F2",
        "F4",
        "F6",
        "F8",
        "FT7",
        "FC5",
        "FC3",
        "FC1",
        "FCz",
        "FC2",
        "FC4",
        "FC6",
        "FT8",
        "T7",
        "C5",
        "C3",
        "C1",
        "Cz",
        "C2",
        "C4",
        "C6",
        "T8",
        "TP7",
        "CP5",
        "CP3",
        "CP1",
        "CPz",
        "CP2",
        "CP4",
        "CP6",
        "TP8",
        "P7",
        "P5",
        "P3",
        "P1",
        "Pz",
        "P2",
        "P4",
        "P6",
        "P8",
        "PO7",
        "PO5",
        "PO3",
        "POz",
        "PO4",
        "PO6",
        "PO8",
        "O1",
        "Oz",
        "O2"
      ],
      "weight_matrix": [
        [
          -0.02455323,
          -0.06811012,
          0.02322637,
          -0.07561026,
          0.07132901,
          0.250469,
          0.22155683,
          0.11070115,
          -0.06842849,
          -0.00720811,
          0.10342731,
          -0.04845367,
          -0.05946247,
          -0.0500293,
          -0.08461187,
          0.13477607,
          0.01128866,
          -0.0179817,
          0.05243482,
          0.12802126,
          0.07043456,
          -0.10565457,
          0.05330339,
          0.01780337,
          0.11074936,
          0.08842441,
          -0.05837531,
          -0.11105044,
          -0.05332034,
          0.17574574,
          -0.17391261,
          0.04423361,
          0.03912767,
          -0.10341541,
          -0.08849943,
          0.00829565,
          0.08421073,
          0.04503123,
          -0.05860012,
          0.01852975,
          0.05787691,
          -0.11590002,
          0.04464524,
          0.03788412,
          -0.07397626,
          0.0833498,
          0.01800495,
          0.32392839,
          -0.11611287,
          0.12184624,
          -0.00181651,
          -0.00713722,
          -0.06197948,
          -0.03626635,
          0.025922,
          0.15026619,
          0.11846613,
          0.01601362,
          -0.03042625,
          -0.09168738
        ],
        [
          -0.03178027,
          -0.03519904,
          0.04445799,
          0.01867549,
          -0.02231195,
          0.23958282,
          0.15284589,
          -0.13415164,
          -0.15099806,
          -0.04893798,
          0.07998742,
          0.13190217,
          -0.04881064,
          -0.07951324,
          -0.05744663,
          0.08232046,
          -0.01652751,
          0.01036991,
          0.12891653,
          0.26556575,
          0.1266039,
          -0.19617979,
          0.10249075,
          -0.06950948,
          -0.06622016,
          -0.12846977,
          -0.07811987,
          -0.11523723,
          -0.04939986,
          0.1863488,
          -0.00966804,
          -0.02150268,
          0.04256443,
          0.00308933,
          0.13002513,
          0.05529021,
          0.08240391,
          -0.07697995,
          -0.08512317,
          0.11704747,
          0.09876598,
          -0.09676781,
          0.0363169,
          0.06613519,
          -0.041081,
          0.02901209,
          0.00218499,
          -0.10978656,
          -0.09698877,
          -0.02162625,
          -0.01459918,
          0.2573947,
          0.14537807,
          -0.04930719,
          -0.01409871,
          -0.05878915,
          0.02121361,
          0.0262615,
          -0.09845035,
          0.05448018
        ],
        [
          -0.01814739,
          0.05480924,
          -0.03697867,
          0.05719788,
          -0.03795074,
          -0.03880849,
          -0.07665952,
          -0.04937162,
          -0.08763672,
          0.16028711,
          -0.07077429,
          0.0710642,
          0.20089343,
          0.08169921,
          -0.13784732,
          -0.05242975,
          0.11296657,
          0.12557787,
          -0.14941491,
          -0.07429718,
          -0.00697398,
          0.1374743,
          -0.02130296,
          -0.00902331,
          0.11590179,
          0.26096928,
          0.00615269,
          0.02078064,
          -0.15294887,
          -0.06435478,
          -0.01046861,
          -0.03110284,
          0.05011761,
          0.05055853,
          -0.13497461,
          -0.12758453,
          -0.02054467,
          0.1188921,
          -0.05755831,
          0.12625094,
          -0.0106718,
          -0.04114239,
          0.04361175,
          0.03864148,
          -0.05987104,
          -0.03206639,
          0.21368201,
          0.04127263,
          -0.11907093,
          0.00611858,
          0.04837079,
          0.00274926,
          -0.28068686,
          0.06854045,
          0.06785198,
          -0.07173226,
          -0.01918287,
          -0.12739475,
          0.11362538,
          0.1201356
        ],
        [
          0.04819103,
          -0.04251688,
          0.038752,
          -0.12709582,
          0.10149381,
          -0.11895733,
          -0.14255229,
          0.09610333,
          -0.11678042,
          0.12419879,
          -0.0487342,
          -0.01920881,
          0.0959445,
          0.28633788,
          -0.14260672,
          0.07424396,
          0.13621651,
          0.14308615,
          -0.12261842,
          0.00677492,
          -0.02739585,
          0.12369312,
          -0.14073372,
          0.01836524,
          0.09689265,
          0.22669719,
          0.09782814,
          -0.02448314,
          -0.12011869,
          -0.0082354,
          -0.03192352,
          -0.04889223,
          0.01522519,
          -0.04877541,
          -0.09667154,
          0.01371961,
          0.06683115,
          0.05515582,
          -0.05804373,
          0.00054002,
          -0.00165861,
          0.0260378,
          -0.04224228,
          0.09639062,
          -0.10542069,
          -0.05099268,
          -0.08377256,
          0.11077084,
          -0.07467649,
          0.17787179,
          0.01573744,
          -0.03670507,
          -0.07321145,
          0.08754644,
          0.14992221,
          -0.11416922,
          -0.12728383,
          -0.01894937,
          0.05356049,
          0.11649902
        ]
      ],
      "weight_matrix_norm": [
        [
          -0.07579833,
          -0.21026288,
          0.07170219,
          -0.23341659,
          0.22019994,
          0.7732234,
          0.68396854,
          0.34174576,
          -0.21124573,
          -0.02225216,
          0.31929064,
          -0.14958143,
          -0.1835667,
          -0.15444556,
          -0.26120549,
          0.41606748,
          0.03484926,
          -0.05551133,
          0.16187163,
          0.39521468,
          0.21743867,
          -0.32616645,
          0.164553,
          0.05496083,
          0.34189457,
          0.27297521,
          -0.18021055,
          -0.34282404,
          -0.16460535,
          0.54254502,
          -0.53688598,
          0.13655366,
          0.1207911,
          -0.31925395,
          -0.2732068,
          0.02560953,
          0.25996712,
          0.139016,
          -0.18090454,
          0.05720323,
          0.17867193,
          -0.35779521,
          0.13782442,
          0.11695214,
          -0.22837226,
          0.25730935,
          0.05558311,
          1.0,
          -0.35845229,
          0.3761518,
          -0.00560774,
          -0.02203333,
          -0.19133697,
          -0.11195792,
          0.08002386,
          0.46388707,
          0.36571705,
          0.04943567,
          -0.09392896,
          -0.2830483
        ],
        [
          -0.11967006,
          -0.13254359,
          0.1674086,
          0.07032341,
          -0.08401668,
          0.90216011,
          0.57554817,
          -0.50515413,
          -0.5685901,
          -0.18427819,
          0.30119631,
          0.49668366,
          -0.1837987,
          -0.29941073,
          -0.21631789,
          0.30998147,
          -0.06223508,
          0.03904836,
          0.48544109,
          1.0,
          0.47673279,
          -0.73872399,
          0.38593361,
          -0.2617411,
          -0.24935503,
          -0.48375878,
          -0.29416397,
          -0.43393105,
          -0.18601745,
          0.70170492,
          -0.03640545,
          -0.08096933,
          0.16027829,
          0.01163302,
          0.48961559,
          0.20819782,
          0.3102957,
          -0.28987151,
          -0.32053521,
          0.44074762,
          0.37190783,
          -0.36438361,
          0.13675295,
          0.24903509,
          -0.15469237,
          0.10924635,
          0.00822768,
          -0.41340631,
          -0.36521566,
          -0.08143465,
          -0.05497387,
          0.96923155,
          0.54742777,
          -0.18566847,
          -0.05308935,
          -0.22137323,
          0.07988081,
          0.0988889,
          -0.37071928,
          0.20514761
        ],
        [
          -0.06465351,
          0.19526827,
          -0.13174352,
          0.20377828,
          -0.1352067,
          -0.13826258,
          -0.27311403,
          -0.17589574,
          -0.31222239,
          0.57105315,
          -0.25214681,
          0.25317964,
          0.71572083,
          0.29106891,
          -0.49110714,
          -0.18679088,
          0.40246475,
          0.44739491,
          -0.53231889,
          -0.26469776,
          -0.02484613,
          0.48977819,
          -0.07589582,
          -0.03214725,
          0.41292205,
          0.92975241,
          0.02192011,
          0.07403497,
          -0.5449093,
          -0.22927606,
          -0.03729642,
          -0.11080974,
          0.17855348,
          0.18012431,
          -0.48087257,
          -0.45454401,
          -0.07319427,
          0.42357561,
          -0.20506237,
          0.44979283,
          -0.03802031,
          -0.14657754,
          0.15537511,
          0.13766758,
          -0.21330188,
          -0.11424258,
          0.76128256,
          0.14704153,
          -0.42421272,
          0.0217986,
          0.17233008,
          0.00979475,
          -1.0,
          0.24418832,
          0.24173549,
          -0.25555974,
          -0.0683426,
          -0.45386788,
          0.40481189,
          0.42800578
        ],
        [
          0.16830128,
          -0.148485,
          0.13533662,
          -0.44386658,
          0.3544547,
          -0.41544393,
          -0.49784639,
          0.33562914,
          -0.40784132,
          0.43374905,
          -0.17019822,
          -0.06708443,
          0.33507442,
          1.0,
          -0.4980365,
          0.25928792,
          0.47571948,
          0.49971086,
          -0.42822984,
          0.02366059,
          -0.09567665,
          0.43198308,
          -0.49149528,
          0.06413834,
          0.3383857,
          0.79171216,
          0.34165281,
          -0.08550438,
          -0.41949981,
          -0.02876111,
          -0.11148899,
          -0.17075014,
          0.05317211,
          -0.17034215,
          -0.33761349,
          0.04791405,
          0.2333996,
          0.19262497,
          -0.20271063,
          0.00188594,
          -0.00579249,
          0.09093382,
          -0.14752601,
          0.33663243,
          -0.36816883,
          -0.17808567,
          -0.29256541,
          0.38685361,
          -0.26079851,
          0.62119544,
          0.05496108,
          -0.12818795,
          -0.25568202,
          0.30574521,
          0.52358496,
          -0.39872202,
          -0.44452319,
          -0.06617835,
          0.18705344,
          0.40685856
        ]
      ],
      "channel_abs_mean": [
        0.03066798,
        0.05015882,
        0.03585376,
        0.06964486,
        0.05827138,
        0.1619544,
        0.14840361,
        0.09758194,
        0.10596093,
        0.085158,
        0.0757308,
        0.06765722,
        0.10127776,
        0.12439491,
        0.10562813,
        0.08594256,
        0.06924981,
        0.0742539,
        0.11334617,
        0.11866478,
        0.05785207,
        0.14075044,
        0.0794577,
        0.02867535,
        0.09744099,
        0.17614016,
        0.060119,
        0.06788786,
        0.09394695,
        0.10867117,
        0.0564932,
        0.03643284,
        0.03675872,
        0.05145967,
        0.11254267,
        0.0512225,
        0.06349762,
        0.07401478,
        0.06483133,
        0.06559205,
        0.04224332,
        0.06996201,
        0.04170404,
        0.05976285,
        0.07008725,
        0.04885524,
        0.07941113,
        0.1464396,
        0.10171226,
        0.08186571,
        0.02013098,
        0.07599656,
        0.14031395,
        0.06041511,
        0.06444872,
        0.0987392,
        0.07153662,
        0.04715481,
        0.07401562,
        0.09570055
      ],
      "channel_signed_mean": [
        -0.00657246,
        -0.0227542,
        0.01736442,
        -0.03170817,
        0.02814003,
        0.08307149,
        0.03879773,
        0.00582031,
        -0.10596093,
        0.05708496,
        0.01597656,
        0.03382597,
        0.04714121,
        0.05962364,
        -0.10562813,
        0.05972768,
        0.06098606,
        0.06526306,
        -0.0226705,
        0.08151618,
        0.04066716,
        -0.01016673,
        -0.00156063,
        -0.01059105,
        0.06433091,
        0.11190528,
        -0.00812859,
        -0.05749754,
        -0.09394695,
        0.07237609,
        -0.0564932,
        -0.01431604,
        0.03675872,
        -0.02463574,
        -0.04753011,
        -0.01256977,
        0.05322528,
        0.0355248,
        -0.06483133,
        0.06559205,
        0.03607812,
        -0.05694311,
        0.0205829,
        0.05976285,
        -0.07008725,
        0.00732571,
        0.03752485,
        0.09154633,
        -0.10171226,
        0.07105259,
        0.01192314,
        0.05407542,
        -0.06762493,
        0.01762834,
        0.05739937,
        -0.02360611,
        -0.00169674,
        -0.02601725,
        0.00957732,
        0.04985686
      ],
      "channel_l2": [
        0.03265176,
        0.0516955,
        0.03669168,
        0.07982893,
        0.06581584,
        0.18424957,
        0.1570407,
        0.10237775,
        0.11045445,
        0.10436017,
        0.07822918,
        0.07931747,
        0.11777285,
        0.15611649,
        0.11157715,
        0.09110748,
        0.0890463,
        0.0957527,
        0.11908922,
        0.1520531,
        0.07380505,
        0.14478309,
        0.09165888,
        0.03730693,
        0.09933773,
        0.18961801,
        0.069135,
        0.08161354,
        0.10380904,
        0.13211907,
        0.08869579,
        0.03800268,
        0.03900733,
        0.06252899,
        0.11434839,
        0.06998547,
        0.06850244,
        0.07926415,
        0.0658824,
        0.08657808,
        0.05749151,
        0.07932132,
        0.04182855,
        0.06440765,
        0.07392259,
        0.05342611,
        0.11511602,
        0.18093942,
        0.10325149,
        0.1083859,
        0.02647563,
        0.13005555,
        0.16516754,
        0.06345987,
        0.08359318,
        0.10513826,
        0.08810987,
        0.06620914,
        0.08123681,
        0.09922103
      ],
      "top_channels_by_abs_weight": [
        {
          "rank": 1,
          "channel_index": 25,
          "channel_name": "C3",
          "abs_mean_weight": 0.17614016,
          "signed_mean_weight": 0.11190528,
          "l2_weight": 0.18961801
        },
        {
          "rank": 2,
          "channel_index": 5,
          "channel_name": "F7",
          "abs_mean_weight": 0.1619544,
          "signed_mean_weight": 0.08307149,
          "l2_weight": 0.18424957
        },
        {
          "rank": 3,
          "channel_index": 6,
          "channel_name": "F5",
          "abs_mean_weight": 0.14840361,
          "signed_mean_weight": 0.03879773,
          "l2_weight": 0.1570407
        },
        {
          "rank": 4,
          "channel_index": 47,
          "channel_name": "P4",
          "abs_mean_weight": 0.1464396,
          "signed_mean_weight": 0.09154633,
          "l2_weight": 0.18093942
        },
        {
          "rank": 5,
          "channel_index": 21,
          "channel_name": "FC6",
          "abs_mean_weight": 0.14075044,
          "signed_mean_weight": -0.01016673,
          "l2_weight": 0.14478309
        },
        {
          "rank": 6,
          "channel_index": 52,
          "channel_name": "PO3",
          "abs_mean_weight": 0.14031395,
          "signed_mean_weight": -0.06762493,
          "l2_weight": 0.16516754
        },
        {
          "rank": 7,
          "channel_index": 13,
          "channel_name": "F8",
          "abs_mean_weight": 0.12439491,
          "signed_mean_weight": 0.05962364,
          "l2_weight": 0.15611649
        },
        {
          "rank": 8,
          "channel_index": 19,
          "channel_name": "FC2",
          "abs_mean_weight": 0.11866478,
          "signed_mean_weight": 0.08151618,
          "l2_weight": 0.1520531
        },
        {
          "rank": 9,
          "channel_index": 18,
          "channel_name": "FCz",
          "abs_mean_weight": 0.11334617,
          "signed_mean_weight": -0.0226705,
          "l2_weight": 0.11908922
        },
        {
          "rank": 10,
          "channel_index": 34,
          "channel_name": "CP3",
          "abs_mean_weight": 0.11254267,
          "signed_mean_weight": -0.04753011,
          "l2_weight": 0.11434839
        },
        {
          "rank": 11,
          "channel_index": 29,
          "channel_name": "C4",
          "abs_mean_weight": 0.10867117,
          "signed_mean_weight": 0.07237609,
          "l2_weight": 0.13211907
        },
        {
          "rank": 12,
          "channel_index": 8,
          "channel_name": "F1",
          "abs_mean_weight": 0.10596093,
          "signed_mean_weight": -0.10596093,
          "l2_weight": 0.11045445
        },
        {
          "rank": 13,
          "channel_index": 14,
          "channel_name": "FT7",
          "abs_mean_weight": 0.10562813,
          "signed_mean_weight": -0.10562813,
          "l2_weight": 0.11157715
        },
        {
          "rank": 14,
          "channel_index": 48,
          "channel_name": "P6",
          "abs_mean_weight": 0.10171226,
          "signed_mean_weight": -0.10171226,
          "l2_weight": 0.10325149
        },
        {
          "rank": 15,
          "channel_index": 12,
          "channel_name": "F6",
          "abs_mean_weight": 0.10127776,
          "signed_mean_weight": 0.04714121,
          "l2_weight": 0.11777285
        }
      ]
    },
    "spatial_update_stats": {
      "available": true,
      "parameter_name": "spatial_conv.1.weight",
      "initial_shape": [
        4,
        60
      ],
      "final_shape": [
        4,
        60
      ],
      "initial_l2": 1.1395002,
      "final_l2": 1.5476046,
      "delta_l2": 1.39961753,
      "delta_max_abs": 0.2795848,
      "relative_delta": 1.22827318,
      "changed": true
    },
    "subject_id": "1"
  },
  {
    "fold_id": 2,
    "fold_label": "subject=1",
    "model_name": "SignalJEPA_PreLocal",
    "strategy": "new",
    "warmup_epochs": 10,
    "n_train": 1795,
    "n_test": 449,
    "train_class_counts": [
      880,
      915
    ],
    "test_class_counts": [
      220,
      229
    ],
    "pretrained_load": {
      "loading_path": "from_pretrained",
      "repo_id": "braindecode/signal-jepa_without-chans",
      "mode": "from_pretrained",
      "model_name": "SignalJEPA_PreLocal"
    },
    "phase_1_trainable_groups": [
      "spatial_conv.",
      "final_layer."
    ],
    "phase_1_trainable_params": 1782,
    "phase_1_trainable_names": [
      "spatial_conv.1.weight",
      "spatial_conv.1.bias",
      "final_layer.1.weight",
      "final_layer.1.bias"
    ],
    "phase_2_trainable_groups": null,
    "phase_2_trainable_params": null,
    "phase_2_trainable_names": null,
    "final_trainable_parameters": [
      {
        "name": "feature_encoder.1.0.weight",
        "shape": [
          8,
          1,
          32
        ],
        "num_params": 256,
        "requires_grad": false
      },
      {
        "name": "feature_encoder.1.2.weight",
        "shape": [
          8
        ],
        "num_params": 8,
        "requires_grad": false
      },
      {
        "name": "feature_encoder.1.2.bias",
        "shape": [
          8
        ],
        "num_params": 8,
        "requires_grad": false
      },
      {
        "name": "feature_encoder.2.0.weight",
        "shape": [
          16,
          8,
          2
        ],
        "num_params": 256,
        "requires_grad": false
      },
      {
        "name": "feature_encoder.3.0.weight",
        "shape": [
          32,
          16,
          2
        ],
        "num_params": 1024,
        "requires_grad": false
      },
      {
        "name": "feature_encoder.4.0.weight",
        "shape": [
          64,
          32,
          2
        ],
        "num_params": 4096,
        "requires_grad": false
      },
      {
        "name": "feature_encoder.5.0.weight",
        "shape": [
          64,
          64,
          2
        ],
        "num_params": 8192,
        "requires_grad": false
      },
      {
        "name": "spatial_conv.1.weight",
        "shape": [
          4,
          1,
          60,
          1
        ],
        "num_params": 240,
        "requires_grad": true
      },
      {
        "name": "spatial_conv.1.bias",
        "shape": [
          4
        ],
        "num_params": 4,
        "requires_grad": true
      },
      {
        "name": "final_layer.1.weight",
        "shape": [
          2,
          768
        ],
        "num_params": 1536,
        "requires_grad": true
      },
      {
        "name": "final_layer.1.bias",
        "shape": [
          2
        ],
        "num_params": 2,
        "requires_grad": true
      }
    ],
    "n_trainable_params_final": 1782,
    "best_epoch": 47,
    "stopped_epoch": 50,
    "best_valid_loss": 0.4090230024956727,
    "accuracy": 0.8240534521158129,
    "balanced_accuracy": 0.823670107185391,
    "confusion_matrix": [
      [
        177,
        43
      ],
      [
        36,
        193
      ]
    ],
    "prediction_histogram": [
      213,
      236
    ],
    "collapse_diagnostics": {
      "prediction_histogram": [
        213,
        236
      ],
      "collapse_ratio": 0.52561247,
      "collapse_threshold": 0.9,
      "collapse_flag": false,
      "majority_predicted_class": 1
    },
    "probability_diagnostics": {
      "available": true,
      "probability_shape": [
        449,
        2
      ],
      "mean_probability_by_class": [
        0.47927533,
        0.52072467
      ],
      "std_probability_by_class": [
        0.36053407,
        0.36053407
      ],
      "mean_confidence": 0.82812259,
      "std_confidence": 0.15083067,
      "mean_prediction_entropy": 0.37649463,
      "mean_normalized_prediction_entropy": 0.54316693,
      "mean_predicted_class_probability": 0.82812259
    },
    "spatial_conv_initial": {
      "available": true,
      "parameter_name": "spatial_conv.1.weight",
      "raw_weight_shape": [
        4,
        1,
        60,
        1
      ],
      "weight_matrix_shape": [
        4,
        60
      ],
      "n_virtual_filters": 4,
      "n_input_channels": 60,
      "channel_names": [
        "Fp1",
        "Fpz",
        "Fp2",
        "AF3",
        "AF4",
        "F7",
        "F5",
        "F3",
        "F1",
        "Fz",
        "F2",
        "F4",
        "F6",
        "F8",
        "FT7",
        "FC5",
        "FC3",
        "FC1",
        "FCz",
        "FC2",
        "FC4",
        "FC6",
        "FT8",
        "T7",
        "C5",
        "C3",
        "C1",
        "Cz",
        "C2",
        "C4",
        "C6",
        "T8",
        "TP7",
        "CP5",
        "CP3",
        "CP1",
        "CPz",
        "CP2",
        "CP4",
        "CP6",
        "TP8",
        "P7",
        "P5",
        "P3",
        "P1",
        "Pz",
        "P2",
        "P4",
        "P6",
        "P8",
        "PO7",
        "PO5",
        "PO3",
        "POz",
        "PO4",
        "PO6",
        "PO8",
        "O1",
        "Oz",
        "O2"
      ],
      "weight_matrix": [
        [
          0.09860362,
          0.02757107,
          -0.00453342,
          -0.04340911,
          0.02576071,
          0.06880875,
          0.0960246,
          0.04289424,
          -0.07277799,
          0.09152263,
          0.05239789,
          -0.08542095,
          0.01087321,
          0.12446697,
          -0.08788451,
          0.11290868,
          -0.05113648,
          0.00419681,
          0.00290361,
          0.03044201,
          -0.10243709,
          0.11921524,
          -0.03911539,
          0.04228823,
          0.10331213,
          0.08389606,
          -0.01665223,
          0.01591225,
          -0.03120496,
          0.06290273,
          -0.09196522,
          0.09813812,
          0.01074813,
          0.00808492,
          -0.07376412,
          -0.10413817,
          -0.062893,
          -0.06088749,
          -0.12183961,
          0.12901251,
          0.03479216,
          -0.07470614,
          0.05674176,
          0.12395246,
          -0.0290658,
          -0.05614749,
          -0.10394765,
          0.11709003,
          -0.08659275,
          0.09497562,
          -0.0239225,
          -0.07232979,
          0.01411721,
          -0.12062103,
          -0.10999423,
          0.0829183,
          0.06248488,
          0.06250216,
          0.12028129,
          -0.08014211
        ],
        [
          0.01009926,
          0.0087412,
          -0.00977896,
          0.08421583,
          0.04553671,
          0.11333744,
          0.0909525,
          -0.11484723,
          -0.11017934,
          0.05184568,
          0.05248089,
          0.11000124,
          -0.00147277,
          0.10807167,
          -0.01666692,
          -0.03505213,
          -0.07999703,
          0.09310645,
          0.0278822,
          0.12351443,
          0.03080638,
          -0.09881285,
          0.02723894,
          -0.00470403,
          -0.04697136,
          0.03006224,
          0.10474245,
          0.03595626,
          -0.04673435,
          0.08497576,
          -0.04740096,
          0.07026555,
          0.02335858,
          0.03381139,
          0.10128237,
          0.09403583,
          0.12373872,
          0.06473045,
          -0.09133916,
          0.06924331,
          -0.04601314,
          -0.05847561,
          0.0647402,
          0.08305502,
          -0.07227547,
          0.11441143,
          -0.05989631,
          -0.07397005,
          -0.10722409,
          -0.05097675,
          0.07102665,
          0.05539307,
          0.02983716,
          -0.09010918,
          -0.02183408,
          -0.11826871,
          -0.11102631,
          -0.03497604,
          -0.12786898,
          -0.03197727
        ],
        [
          0.04709473,
          0.02920434,
          -0.05418927,
          0.10976914,
          -0.12658985,
          0.00878382,
          -0.04467642,
          -0.04240006,
          -0.00666616,
          0.10525598,
          -0.0294892,
          0.08200011,
          0.09430724,
          -0.06121391,
          -0.00176534,
          0.06909451,
          0.10997215,
          0.08174603,
          -0.02376501,
          -0.07964359,
          -0.0774474,
          0.01633754,
          0.11415614,
          -0.06285675,
          0.0570755,
          0.02552816,
          0.07502529,
          -0.01806435,
          -0.05698903,
          -0.06936607,
          -0.03224508,
          0.09792642,
          -0.01748952,
          -0.00407872,
          -0.08633603,
          -0.05719286,
          0.07931304,
          0.02280134,
          -0.04839899,
          0.01430883,
          0.07498378,
          -0.10826348,
          -0.05108214,
          0.00344549,
          -0.0129722,
          0.12906928,
          0.10434645,
          -0.02263926,
          -0.11671187,
          -0.09633882,
          0.04830891,
          0.08607472,
          -0.08869911,
          0.01658894,
          -0.09075859,
          0.06495057,
          0.11313045,
          -0.09842119,
          -0.03621754,
          0.08533759
        ],
        [
          0.12180255,
          -0.00603986,
          0.11095531,
          -0.12369663,
          0.10324408,
          -0.04422085,
          -0.06285778,
          -0.00306022,
          -0.12783846,
          0.03429446,
          -0.01821135,
          -0.02381252,
          -0.07222682,
          0.06508011,
          -0.10177355,
          0.01723605,
          -0.03398101,
          0.05306143,
          0.003645,
          0.08476456,
          0.00781615,
          -0.10806764,
          -0.04963005,
          0.0397224,
          -0.03605769,
          -0.05288761,
          0.1004701,
          -0.08451293,
          -0.03914668,
          -0.02354313,
          -0.07526991,
          -0.00433752,
          0.01454157,
          -0.0221094,
          -0.11260715,
          0.03097835,
          0.1044676,
          -0.05688865,
          -0.01832165,
          -0.08687175,
          0.07566848,
          -0.05502742,
          -0.08429559,
          0.12045878,
          -0.05579505,
          0.04463868,
          -0.09179308,
          0.07205968,
          -0.04402351,
          0.1097022,
          0.02096228,
          0.10205078,
          0.03712666,
          0.10450509,
          0.01452936,
          -0.0240638,
          -0.08278716,
          0.02288513,
          -0.1179,
          0.06873485
        ]
      ],
      "weight_matrix_norm": [
        [
          0.76429504,
          0.21370848,
          -0.03513936,
          -0.33647209,
          0.19967607,
          0.53334945,
          0.7443046,
          0.33248127,
          -0.5641157,
          0.709409,
          0.40614581,
          -0.66211373,
          0.0842803,
          0.96476668,
          -0.68120921,
          0.87517619,
          -0.39636838,
          0.03253024,
          0.02250643,
          0.23596172,
          -0.79400897,
          0.92405951,
          -0.30319068,
          0.32778394,
          0.80079162,
          0.65029395,
          -0.12907457,
          0.12333881,
          -0.24187547,
          0.48757079,
          -0.71283954,
          0.76068687,
          0.08331078,
          0.06266774,
          -0.5717594,
          -0.80719429,
          -0.48749539,
          -0.47195029,
          -0.9444015,
          1.0,
          0.26968047,
          -0.57906121,
          0.43981594,
          0.96077865,
          -0.22529446,
          -0.43520969,
          -0.80571765,
          0.90758663,
          -0.67119652,
          0.73617375,
          -0.18542773,
          -0.56064165,
          0.10942513,
          -0.93495607,
          -0.85258579,
          0.64271522,
          0.48433191,
          0.4844659,
          0.93232274,
          -0.62119645
        ],
        [
          0.07898133,
          0.0683606,
          -0.07647642,
          0.65861034,
          0.35612008,
          0.88635606,
          0.71129447,
          -0.89816332,
          -0.8616581,
          0.40545943,
          0.41042706,
          0.8602652,
          -0.01151781,
          0.84517503,
          -0.13034372,
          -0.27412534,
          -0.62561715,
          0.72813946,
          0.21805291,
          0.96594518,
          0.24092142,
          -0.77276635,
          0.21302223,
          -0.03678788,
          -0.36733973,
          0.23510192,
          0.81913888,
          0.28119615,
          -0.3654862,
          0.6645534,
          -0.37069944,
          0.54951203,
          0.18267591,
          0.26442215,
          0.79207933,
          0.73540771,
          0.96769929,
          0.50622481,
          -0.71431839,
          0.54151767,
          -0.359846,
          -0.45730877,
          0.50630105,
          0.6495322,
          -0.56523073,
          0.89475513,
          -0.46841934,
          -0.57848316,
          -0.83854657,
          -0.39866391,
          0.55546427,
          0.43320179,
          0.23334166,
          -0.70469934,
          -0.17075349,
          -0.92492104,
          -0.86828178,
          -0.2735303,
          -1.0,
          -0.25007838
        ],
        [
          0.36487949,
          0.22626869,
          -0.41984639,
          0.85046679,
          -0.9807899,
          0.06805506,
          -0.34614295,
          -0.32850623,
          -0.05164793,
          0.81549978,
          -0.22847578,
          0.63531852,
          0.73067147,
          -0.47427171,
          -0.01367746,
          0.53532881,
          0.85203964,
          0.63334996,
          -0.18412602,
          -0.61706078,
          -0.60004514,
          0.12657964,
          0.88445628,
          -0.48700005,
          0.44220823,
          0.19778651,
          0.58127922,
          -0.13995855,
          -0.44153827,
          -0.53743279,
          -0.24982771,
          0.75871205,
          -0.13550492,
          -0.03160098,
          -0.66891229,
          -0.44311753,
          0.61449975,
          0.17665969,
          -0.37498459,
          0.11086158,
          0.58095753,
          -0.83880126,
          -0.39577302,
          0.0266949,
          -0.10050569,
          1.0,
          0.80845302,
          -0.17540394,
          -0.90425754,
          -0.74641162,
          0.37428665,
          0.66688776,
          -0.68722093,
          0.12852742,
          -0.70317733,
          0.50322253,
          0.87650949,
          -0.76254541,
          -0.28060541,
          0.66117662
        ],
        [
          0.9527849,
          -0.04724601,
          0.86793375,
          -0.96760106,
          0.80761361,
          -0.34591192,
          -0.49169689,
          -0.02393819,
          -1.0,
          0.268264,
          -0.14245595,
          -0.18627037,
          -0.5649851,
          0.50908077,
          -0.79611051,
          0.13482682,
          -0.2658121,
          0.41506621,
          0.02851257,
          0.66305989,
          0.06114084,
          -0.84534526,
          -0.38822469,
          0.31072336,
          -0.28205666,
          -0.41370657,
          0.78591448,
          -0.66109163,
          -0.30621988,
          -0.18416315,
          -0.58878922,
          -0.03392969,
          0.11374954,
          -0.17294799,
          -0.88085502,
          0.24232419,
          0.81718445,
          -0.44500422,
          -0.14331874,
          -0.67954314,
          0.59190702,
          -0.43044493,
          -0.6593914,
          0.94227338,
          -0.43644965,
          0.34918034,
          -0.71803957,
          0.56367761,
          -0.34436825,
          0.85813141,
          0.16397478,
          0.79827917,
          0.29041854,
          0.8174777,
          0.11365408,
          -0.18823601,
          -0.64759195,
          0.17901599,
          -0.92225766,
          0.5376696
        ]
      ],
      "channel_abs_mean": [
        0.06940004,
        0.01788912,
        0.04486424,
        0.09027268,
        0.07528284,
        0.05878771,
        0.07362783,
        0.05080044,
        0.07936548,
        0.07072969,
        0.03814483,
        0.07530871,
        0.04472001,
        0.08970816,
        0.05202258,
        0.05857284,
        0.06877166,
        0.05802768,
        0.01454896,
        0.07959115,
        0.05462676,
        0.08560832,
        0.05753513,
        0.03739285,
        0.06085417,
        0.04809352,
        0.07422252,
        0.03861145,
        0.04351876,
        0.06019692,
        0.06172029,
        0.0676669,
        0.01653445,
        0.01702111,
        0.09349742,
        0.0715863,
        0.09260309,
        0.05132699,
        0.06997485,
        0.0748591,
        0.05786439,
        0.07411816,
        0.06421492,
        0.08272794,
        0.04252713,
        0.08606672,
        0.08999588,
        0.07143976,
        0.08863805,
        0.08799835,
        0.04105509,
        0.07896209,
        0.04244503,
        0.08295606,
        0.05927907,
        0.07255035,
        0.0923572,
        0.05469613,
        0.10056695,
        0.06654796
      ],
      "channel_signed_mean": [
        0.06940004,
        0.01486919,
        0.01061342,
        0.00671981,
        0.01198791,
        0.03667729,
        0.01986073,
        -0.02935332,
        -0.07936548,
        0.07072969,
        0.01429456,
        0.02069197,
        0.00787022,
        0.05910121,
        -0.05202258,
        0.04104678,
        -0.01378559,
        0.05802768,
        0.00266645,
        0.03976935,
        -0.03531549,
        -0.01783193,
        0.01316241,
        0.00361246,
        0.01933965,
        0.02164971,
        0.0658964,
        -0.01267719,
        -0.04351876,
        0.01374232,
        -0.06172029,
        0.06549814,
        0.00778969,
        0.00392705,
        -0.04285623,
        -0.00907921,
        0.06115659,
        -0.00756109,
        -0.06997485,
        0.03142323,
        0.03485782,
        -0.07411816,
        -0.00347394,
        0.08272794,
        -0.04252713,
        0.05799298,
        -0.03782265,
        0.0231351,
        -0.08863805,
        0.01434056,
        0.02909384,
        0.0427972,
        -0.00190452,
        -0.02240905,
        -0.05201438,
        0.00138409,
        -0.00454953,
        -0.01200248,
        -0.04042631,
        0.01048827
      ],
      "channel_l2": [
        0.08197324,
        0.02077225,
        0.06197527,
        0.09529793,
        0.08576354,
        0.0700226,
        0.0765509,
        0.06487861,
        0.09195546,
        0.07635329,
        0.04092997,
        0.08168241,
        0.0596468,
        0.0937471,
        0.06775405,
        0.06900752,
        0.07460403,
        0.06742468,
        0.01846558,
        0.08618391,
        0.06614678,
        0.09476522,
        0.06664596,
        0.04283475,
        0.06602552,
        0.05336449,
        0.08211473,
        0.04747317,
        0.0445479,
        0.06431089,
        0.06597302,
        0.07774435,
        0.01716455,
        0.02070047,
        0.09464875,
        0.07732751,
        0.0954867,
        0.05397578,
        0.08041436,
        0.08542585,
        0.06057225,
        0.0770542,
        0.06543327,
        0.09589648,
        0.04834752,
        0.0933997,
        0.09179711,
        0.07887772,
        0.09294493,
        0.09073965,
        0.04579912,
        0.08081339,
        0.05083176,
        0.09201305,
        0.07249773,
        0.0800946,
        0.09471459,
        0.06192799,
        0.10727324,
        0.06973573
      ],
      "top_channels_by_abs_weight": [
        {
          "rank": 1,
          "channel_index": 58,
          "channel_name": "Oz",
          "abs_mean_weight": 0.10056695,
          "signed_mean_weight": -0.04042631,
          "l2_weight": 0.10727324
        },
        {
          "rank": 2,
          "channel_index": 34,
          "channel_name": "CP3",
          "abs_mean_weight": 0.09349742,
          "signed_mean_weight": -0.04285623,
          "l2_weight": 0.09464875
        },
        {
          "rank": 3,
          "channel_index": 36,
          "channel_name": "CPz",
          "abs_mean_weight": 0.09260309,
          "signed_mean_weight": 0.06115659,
          "l2_weight": 0.0954867
        },
        {
          "rank": 4,
          "channel_index": 56,
          "channel_name": "PO8",
          "abs_mean_weight": 0.0923572,
          "signed_mean_weight": -0.00454953,
          "l2_weight": 0.09471459
        },
        {
          "rank": 5,
          "channel_index": 3,
          "channel_name": "AF3",
          "abs_mean_weight": 0.09027268,
          "signed_mean_weight": 0.00671981,
          "l2_weight": 0.09529793
        },
        {
          "rank": 6,
          "channel_index": 46,
          "channel_name": "P2",
          "abs_mean_weight": 0.08999588,
          "signed_mean_weight": -0.03782265,
          "l2_weight": 0.09179711
        },
        {
          "rank": 7,
          "channel_index": 13,
          "channel_name": "F8",
          "abs_mean_weight": 0.08970816,
          "signed_mean_weight": 0.05910121,
          "l2_weight": 0.0937471
        },
        {
          "rank": 8,
          "channel_index": 48,
          "channel_name": "P6",
          "abs_mean_weight": 0.08863805,
          "signed_mean_weight": -0.08863805,
          "l2_weight": 0.09294493
        },
        {
          "rank": 9,
          "channel_index": 49,
          "channel_name": "P8",
          "abs_mean_weight": 0.08799835,
          "signed_mean_weight": 0.01434056,
          "l2_weight": 0.09073965
        },
        {
          "rank": 10,
          "channel_index": 45,
          "channel_name": "Pz",
          "abs_mean_weight": 0.08606672,
          "signed_mean_weight": 0.05799298,
          "l2_weight": 0.0933997
        },
        {
          "rank": 11,
          "channel_index": 21,
          "channel_name": "FC6",
          "abs_mean_weight": 0.08560832,
          "signed_mean_weight": -0.01783193,
          "l2_weight": 0.09476522
        },
        {
          "rank": 12,
          "channel_index": 53,
          "channel_name": "POz",
          "abs_mean_weight": 0.08295606,
          "signed_mean_weight": -0.02240905,
          "l2_weight": 0.09201305
        },
        {
          "rank": 13,
          "channel_index": 43,
          "channel_name": "P3",
          "abs_mean_weight": 0.08272794,
          "signed_mean_weight": 0.08272794,
          "l2_weight": 0.09589648
        },
        {
          "rank": 14,
          "channel_index": 19,
          "channel_name": "FC2",
          "abs_mean_weight": 0.07959115,
          "signed_mean_weight": 0.03976935,
          "l2_weight": 0.08618391
        },
        {
          "rank": 15,
          "channel_index": 8,
          "channel_name": "F1",
          "abs_mean_weight": 0.07936548,
          "signed_mean_weight": -0.07936548,
          "l2_weight": 0.09195546
        }
      ]
    },
    "spatial_conv": {
      "available": true,
      "parameter_name": "spatial_conv.1.weight",
      "raw_weight_shape": [
        4,
        1,
        60,
        1
      ],
      "weight_matrix_shape": [
        4,
        60
      ],
      "n_virtual_filters": 4,
      "n_input_channels": 60,
      "channel_names": [
        "Fp1",
        "Fpz",
        "Fp2",
        "AF3",
        "AF4",
        "F7",
        "F5",
        "F3",
        "F1",
        "Fz",
        "F2",
        "F4",
        "F6",
        "F8",
        "FT7",
        "FC5",
        "FC3",
        "FC1",
        "FCz",
        "FC2",
        "FC4",
        "FC6",
        "FT8",
        "T7",
        "C5",
        "C3",
        "C1",
        "Cz",
        "C2",
        "C4",
        "C6",
        "T8",
        "TP7",
        "CP5",
        "CP3",
        "CP1",
        "CPz",
        "CP2",
        "CP4",
        "CP6",
        "TP8",
        "P7",
        "P5",
        "P3",
        "P1",
        "Pz",
        "P2",
        "P4",
        "P6",
        "P8",
        "PO7",
        "PO5",
        "PO3",
        "POz",
        "PO4",
        "PO6",
        "PO8",
        "O1",
        "Oz",
        "O2"
      ],
      "weight_matrix": [
        [
          0.01136353,
          -0.05696743,
          -0.00559611,
          -0.05219065,
          0.01419126,
          0.29060775,
          0.17272298,
          0.04484913,
          -0.07899287,
          0.16538347,
          0.08188599,
          -0.02471402,
          -0.06864304,
          -0.02690656,
          0.01406352,
          0.08004917,
          -0.15957069,
          -0.08285066,
          0.15283239,
          0.22548045,
          0.05422603,
          -0.05941657,
          0.0214035,
          0.05909824,
          0.00069355,
          -0.03953596,
          -0.04627286,
          -0.18124063,
          0.05609652,
          0.24556156,
          0.06783599,
          -0.03520053,
          0.03673486,
          0.06412098,
          -0.1211316,
          -0.06392252,
          -0.0190619,
          0.00131797,
          -0.00521563,
          0.02323998,
          0.09194248,
          -0.18017493,
          0.13208102,
          0.24844012,
          0.0812957,
          0.04646696,
          -0.00284748,
          0.01803659,
          -0.17280543,
          0.01032439,
          -0.0287143,
          0.10000642,
          0.17638507,
          -0.10603707,
          0.01354081,
          -0.04780238,
          -0.00870785,
          0.09897259,
          0.00902448,
          -0.05032824
        ],
        [
          -0.01857967,
          0.04732347,
          -0.07578248,
          0.0848664,
          0.06518949,
          -0.02005291,
          -0.01848468,
          -0.04413224,
          -0.09420668,
          0.01389383,
          0.09802369,
          0.0850113,
          0.22646789,
          0.11222688,
          -0.29931101,
          0.02733286,
          0.11996964,
          0.12779555,
          -0.21158034,
          0.02675044,
          -0.0064388,
          0.15772276,
          0.06288603,
          -0.09965242,
          0.02691969,
          0.15445779,
          -0.07936059,
          0.02348661,
          -0.16094416,
          0.19364235,
          0.13090025,
          -0.01965501,
          0.0057139,
          0.10511114,
          0.10623252,
          0.08763367,
          -0.00289643,
          -0.06136523,
          -0.12283246,
          0.0849546,
          -0.21179526,
          0.05175073,
          0.1402481,
          0.04144629,
          -0.00502564,
          -0.04155309,
          0.00045027,
          -0.00359844,
          -0.12853456,
          -0.00537252,
          0.10184859,
          -0.09024215,
          -0.01788207,
          0.05283657,
          0.09204521,
          -0.03039468,
          -0.09660632,
          -0.03692809,
          0.05174322,
          0.1215426
        ],
        [
          -0.00579012,
          -0.02718373,
          -0.02922781,
          0.10167116,
          -0.0423355,
          0.14640445,
          0.04545456,
          -0.01125172,
          -0.08569283,
          0.0495859,
          -0.05396621,
          0.16672288,
          -0.03620162,
          -0.13134956,
          -0.03681113,
          0.05238756,
          0.04558095,
          -0.04968689,
          0.06288899,
          0.03227293,
          0.02128146,
          -0.19892699,
          0.09824439,
          0.00995696,
          0.0679647,
          0.05610164,
          0.1429183,
          -0.22556691,
          -0.04247095,
          -0.08753951,
          0.06358264,
          0.03143438,
          0.05315596,
          -0.03571205,
          -0.17938527,
          -0.07454245,
          0.05924283,
          0.04373009,
          0.03854674,
          0.09193052,
          0.10576326,
          -0.24069734,
          0.00287811,
          0.09334026,
          -0.12318325,
          0.16380481,
          0.12828128,
          0.02713017,
          -0.12374099,
          -0.08371004,
          -0.00418954,
          0.17204876,
          0.0198696,
          -0.02627733,
          -0.00076118,
          0.01803235,
          0.19175652,
          -0.0163378,
          -0.20768721,
          0.052344
        ],
        [
          0.05342725,
          0.02938175,
          0.01175501,
          -0.10896587,
          0.077836,
          -0.23954898,
          -0.07659423,
          0.11646857,
          -0.07039589,
          0.03424435,
          0.04467349,
          -0.12530911,
          -0.04072857,
          0.12547384,
          -0.18417424,
          0.13596827,
          0.18623337,
          0.17369685,
          -0.1125731,
          -0.00377845,
          -0.11629087,
          0.10552414,
          0.09529672,
          0.00158155,
          0.09372597,
          0.17886296,
          -0.01231064,
          0.01343373,
          -0.14144006,
          -0.00729235,
          0.05210626,
          -0.01127713,
          0.03047814,
          0.0510469,
          -0.0561179,
          0.03155842,
          0.04113646,
          -0.05035989,
          0.01491692,
          -0.02659586,
          -0.06285379,
          0.01460846,
          -0.1138556,
          0.03445002,
          -0.11105119,
          -0.09803212,
          -0.0308165,
          0.16866896,
          -0.0233708,
          0.1653087,
          0.01071911,
          -0.09308132,
          -0.18191583,
          0.14775521,
          0.16946946,
          -0.02133623,
          -0.15585218,
          -0.0147807,
          0.07889469,
          0.11880286
        ]
      ],
      "weight_matrix_norm": [
        [
          0.03910265,
          -0.19602861,
          -0.01925656,
          -0.17959139,
          0.04883304,
          1.0,
          0.59435093,
          0.15432873,
          -0.27181956,
          0.56909519,
          0.28177497,
          -0.08504254,
          -0.23620513,
          -0.0925872,
          0.04839348,
          0.27545437,
          -0.54909307,
          -0.28509444,
          0.52590609,
          0.77589279,
          0.18659528,
          -0.20445624,
          0.07365082,
          0.20336086,
          0.00238654,
          -0.1360458,
          -0.15922789,
          -0.62366068,
          0.19303176,
          0.84499311,
          0.23342803,
          -0.12112728,
          0.12640703,
          0.22064441,
          -0.41682163,
          -0.21996152,
          -0.06559321,
          0.00453521,
          -0.01794732,
          0.07997027,
          0.31637999,
          -0.61999357,
          0.4544993,
          0.85489845,
          0.27974373,
          0.15989581,
          -0.00979838,
          0.06206507,
          -0.59463459,
          0.03552691,
          -0.09880774,
          0.34412855,
          0.60695243,
          -0.36488041,
          0.0465948,
          -0.16449109,
          -0.02996429,
          0.34057105,
          0.03105382,
          -0.17318273
        ],
        [
          -0.06207481,
          0.15810801,
          -0.25318974,
          0.28353918,
          0.2177985,
          -0.06699689,
          -0.06175743,
          -0.14744608,
          -0.31474513,
          0.04641937,
          0.32749778,
          0.28402331,
          0.75663066,
          0.37495074,
          -1.0,
          0.09131928,
          0.40081933,
          0.42696574,
          -0.70689124,
          0.08937339,
          -0.02151207,
          0.52695274,
          0.21010263,
          -0.33293936,
          0.08993886,
          0.5160445,
          -0.26514423,
          0.0784689,
          -0.53771549,
          0.64696032,
          0.43733856,
          -0.06566752,
          0.01909017,
          0.35117701,
          0.35492352,
          0.29278466,
          -0.009677,
          -0.20502163,
          -0.41038403,
          0.28383386,
          -0.7076093,
          0.17289951,
          0.46856982,
          0.13847232,
          -0.01679069,
          -0.13882916,
          0.00150437,
          -0.01202241,
          -0.42943478,
          -0.01794962,
          0.34027678,
          -0.30149958,
          -0.0597441,
          0.17652732,
          0.30752364,
          -0.10154881,
          -0.32276234,
          -0.12337699,
          0.17287442,
          0.40607461
        ],
        [
          -0.02405561,
          -0.11293738,
          -0.1214297,
          0.4224025,
          -0.17588685,
          0.60825121,
          0.18884531,
          -0.04674633,
          -0.35601902,
          0.20600936,
          -0.22420773,
          0.69266605,
          -0.15040307,
          -0.54570425,
          -0.15293534,
          0.21764909,
          0.18937039,
          -0.20642893,
          0.2612783,
          0.13408098,
          0.08841585,
          -0.82646108,
          0.40816566,
          0.04136713,
          0.2823658,
          0.2330796,
          0.5937677,
          -0.93713921,
          -0.17644963,
          -0.36369121,
          0.26416016,
          0.13059711,
          0.2208415,
          -0.1483691,
          -0.74527317,
          -0.30969369,
          0.24612997,
          0.18168081,
          0.1601461,
          0.38193408,
          0.43940353,
          -1.0,
          0.01195739,
          0.38779101,
          -0.51177651,
          0.68054271,
          0.53295678,
          0.11271486,
          -0.51409376,
          -0.34778136,
          -0.01740586,
          0.71479297,
          0.08255015,
          -0.10917167,
          -0.0031624,
          0.07491713,
          0.79667068,
          -0.06787696,
          -0.86285627,
          0.21746813
        ],
        [
          0.22303268,
          0.12265447,
          0.04907143,
          -0.45487928,
          0.32492727,
          -1.0,
          -0.31974348,
          0.48619941,
          -0.29386845,
          0.14295344,
          0.18649003,
          -0.52310431,
          -0.17002191,
          0.52379203,
          -0.76883751,
          0.56760108,
          0.7774334,
          0.7250995,
          -0.46993771,
          -0.01577317,
          -0.48545757,
          0.44051173,
          0.39781725,
          0.0066022,
          0.39126015,
          0.74666548,
          -0.05139093,
          0.05607926,
          -0.59044319,
          -0.03044198,
          0.21751821,
          -0.04707653,
          0.12723134,
          0.21309586,
          -0.23426481,
          0.131741,
          0.17172462,
          -0.21022797,
          0.06227085,
          -0.11102472,
          -0.26238388,
          0.06098319,
          -0.47529152,
          0.14381203,
          -0.46358451,
          -0.40923625,
          -0.12864386,
          0.7041105,
          -0.09756169,
          0.69008309,
          0.04474705,
          -0.38856903,
          -0.75940979,
          0.61680579,
          0.70745224,
          -0.08906833,
          -0.65060675,
          -0.0617022,
          0.32934681,
          0.4959439
        ]
      ],
      "channel_abs_mean": [
        0.02229014,
        0.0402141,
        0.03059035,
        0.08692352,
        0.04988806,
        0.17415352,
        0.07831411,
        0.05417541,
        0.08232207,
        0.06577689,
        0.06963734,
        0.10043932,
        0.09301028,
        0.09898922,
        0.13358997,
        0.07393447,
        0.12783867,
        0.10850749,
        0.1349687,
        0.07207057,
        0.04955929,
        0.1303976,
        0.06945766,
        0.04257229,
        0.04732598,
        0.10723959,
        0.07021561,
        0.11093197,
        0.10023793,
        0.13350894,
        0.07860629,
        0.02439176,
        0.03152071,
        0.06399777,
        0.11571682,
        0.06441426,
        0.0305844,
        0.03919329,
        0.04537794,
        0.05668024,
        0.11808869,
        0.12180787,
        0.09726571,
        0.10441918,
        0.08013894,
        0.08746424,
        0.04059889,
        0.05435854,
        0.11211295,
        0.06617892,
        0.03636788,
        0.11384467,
        0.09901314,
        0.08322655,
        0.06895417,
        0.02939141,
        0.11323072,
        0.04175479,
        0.0868374,
        0.08575442
      ],
      "channel_signed_mean": [
        0.01010525,
        -0.00186148,
        -0.02471285,
        0.00634526,
        0.02872031,
        0.04435258,
        0.03077466,
        0.02648344,
        -0.08232207,
        0.06577689,
        0.04265424,
        0.02542776,
        0.02022366,
        0.01986115,
        -0.12655821,
        0.07393447,
        0.04805332,
        0.04223871,
        -0.02710801,
        0.07018134,
        -0.01180554,
        0.00122584,
        0.06945766,
        -0.00725392,
        0.04732598,
        0.0874716,
        0.00124355,
        -0.0924718,
        -0.07218967,
        0.08609302,
        0.07860629,
        -0.00867457,
        0.03152071,
        0.04614174,
        -0.06260056,
        -0.00481822,
        0.01960524,
        -0.01666927,
        -0.01864611,
        0.04338231,
        -0.01923583,
        -0.08862827,
        0.04033791,
        0.10441918,
        -0.03949109,
        0.01767164,
        0.02376689,
        0.05255932,
        -0.11211295,
        0.02163763,
        0.01991596,
        0.02218293,
        -0.00088581,
        0.01706934,
        0.06857358,
        -0.02037523,
        -0.01735246,
        0.0077315,
        -0.01700621,
        0.0605903
      ],
      "channel_l2": [
        0.02899281,
        0.04209229,
        0.04113011,
        0.08963364,
        0.05545674,
        0.20228258,
        0.09760597,
        0.06642783,
        0.08278529,
        0.08828387,
        0.07283892,
        0.1132879,
        0.12141761,
        0.10760487,
        0.17681918,
        0.08424188,
        0.13839799,
        0.11814748,
        0.14556074,
        0.11468744,
        0.06511219,
        0.14063613,
        0.07606936,
        0.05814819,
        0.05943254,
        0.12304436,
        0.08517112,
        0.14531061,
        0.11275961,
        0.16241473,
        0.08440144,
        0.0261758,
        0.03583494,
        0.06899454,
        0.12378056,
        0.06767248,
        0.0373285,
        0.04532072,
        0.06485249,
        0.06503065,
        0.13081199,
        0.15271686,
        0.11189985,
        0.13540633,
        0.09238605,
        0.10040935,
        0.06598116,
        0.08591206,
        0.12474061,
        0.09283021,
        0.05322147,
        0.11875378,
        0.12739666,
        0.09560029,
        0.09666456,
        0.03158047,
        0.13273005,
        0.05395519,
        0.1141459,
        0.09241151
      ],
      "top_channels_by_abs_weight": [
        {
          "rank": 1,
          "channel_index": 5,
          "channel_name": "F7",
          "abs_mean_weight": 0.17415352,
          "signed_mean_weight": 0.04435258,
          "l2_weight": 0.20228258
        },
        {
          "rank": 2,
          "channel_index": 18,
          "channel_name": "FCz",
          "abs_mean_weight": 0.1349687,
          "signed_mean_weight": -0.02710801,
          "l2_weight": 0.14556074
        },
        {
          "rank": 3,
          "channel_index": 14,
          "channel_name": "FT7",
          "abs_mean_weight": 0.13358997,
          "signed_mean_weight": -0.12655821,
          "l2_weight": 0.17681918
        },
        {
          "rank": 4,
          "channel_index": 29,
          "channel_name": "C4",
          "abs_mean_weight": 0.13350894,
          "signed_mean_weight": 0.08609302,
          "l2_weight": 0.16241473
        },
        {
          "rank": 5,
          "channel_index": 21,
          "channel_name": "FC6",
          "abs_mean_weight": 0.1303976,
          "signed_mean_weight": 0.00122584,
          "l2_weight": 0.14063613
        },
        {
          "rank": 6,
          "channel_index": 16,
          "channel_name": "FC3",
          "abs_mean_weight": 0.12783867,
          "signed_mean_weight": 0.04805332,
          "l2_weight": 0.13839799
        },
        {
          "rank": 7,
          "channel_index": 41,
          "channel_name": "P7",
          "abs_mean_weight": 0.12180787,
          "signed_mean_weight": -0.08862827,
          "l2_weight": 0.15271686
        },
        {
          "rank": 8,
          "channel_index": 40,
          "channel_name": "TP8",
          "abs_mean_weight": 0.11808869,
          "signed_mean_weight": -0.01923583,
          "l2_weight": 0.13081199
        },
        {
          "rank": 9,
          "channel_index": 34,
          "channel_name": "CP3",
          "abs_mean_weight": 0.11571682,
          "signed_mean_weight": -0.06260056,
          "l2_weight": 0.12378056
        },
        {
          "rank": 10,
          "channel_index": 51,
          "channel_name": "PO5",
          "abs_mean_weight": 0.11384467,
          "signed_mean_weight": 0.02218293,
          "l2_weight": 0.11875378
        },
        {
          "rank": 11,
          "channel_index": 56,
          "channel_name": "PO8",
          "abs_mean_weight": 0.11323072,
          "signed_mean_weight": -0.01735246,
          "l2_weight": 0.13273005
        },
        {
          "rank": 12,
          "channel_index": 48,
          "channel_name": "P6",
          "abs_mean_weight": 0.11211295,
          "signed_mean_weight": -0.11211295,
          "l2_weight": 0.12474061
        },
        {
          "rank": 13,
          "channel_index": 27,
          "channel_name": "Cz",
          "abs_mean_weight": 0.11093197,
          "signed_mean_weight": -0.0924718,
          "l2_weight": 0.14531061
        },
        {
          "rank": 14,
          "channel_index": 17,
          "channel_name": "FC1",
          "abs_mean_weight": 0.10850749,
          "signed_mean_weight": 0.04223871,
          "l2_weight": 0.11814748
        },
        {
          "rank": 15,
          "channel_index": 25,
          "channel_name": "C3",
          "abs_mean_weight": 0.10723959,
          "signed_mean_weight": 0.0874716,
          "l2_weight": 0.12304436
        }
      ]
    },
    "spatial_update_stats": {
      "available": true,
      "parameter_name": "spatial_conv.1.weight",
      "initial_shape": [
        4,
        60
      ],
      "final_shape": [
        4,
        60
      ],
      "initial_l2": 1.1395002,
      "final_l2": 1.57571026,
      "delta_l2": 1.56075238,
      "delta_max_abs": 0.28264409,
      "relative_delta": 1.36968154,
      "changed": true
    },
    "subject_id": "1"
  },
  {
    "fold_id": 3,
    "fold_label": "subject=1",
    "model_name": "SignalJEPA_PreLocal",
    "strategy": "new",
    "warmup_epochs": 10,
    "n_train": 1795,
    "n_test": 449,
    "train_class_counts": [
      880,
      915
    ],
    "test_class_counts": [
      220,
      229
    ],
    "pretrained_load": {
      "loading_path": "from_pretrained",
      "repo_id": "braindecode/signal-jepa_without-chans",
      "mode": "from_pretrained",
      "model_name": "SignalJEPA_PreLocal"
    },
    "phase_1_trainable_groups": [
      "spatial_conv.",
      "final_layer."
    ],
    "phase_1_trainable_params": 1782,
    "phase_1_trainable_names": [
      "spatial_conv.1.weight",
      "spatial_conv.1.bias",
      "final_layer.1.weight",
      "final_layer.1.bias"
    ],
    "phase_2_trainable_groups": null,
    "phase_2_trainable_params": null,
    "phase_2_trainable_names": null,
    "final_trainable_parameters": [
      {
        "name": "feature_encoder.1.0.weight",
        "shape": [
          8,
          1,
          32
        ],
        "num_params": 256,
        "requires_grad": false
      },
      {
        "name": "feature_encoder.1.2.weight",
        "shape": [
          8
        ],
        "num_params": 8,
        "requires_grad": false
      },
      {
        "name": "feature_encoder.1.2.bias",
        "shape": [
          8
        ],
        "num_params": 8,
        "requires_grad": false
      },
      {
        "name": "feature_encoder.2.0.weight",
        "shape": [
          16,
          8,
          2
        ],
        "num_params": 256,
        "requires_grad": false
      },
      {
        "name": "feature_encoder.3.0.weight",
        "shape": [
          32,
          16,
          2
        ],
        "num_params": 1024,
        "requires_grad": false
      },
      {
        "name": "feature_encoder.4.0.weight",
        "shape": [
          64,
          32,
          2
        ],
        "num_params": 4096,
        "requires_grad": false
      },
      {
        "name": "feature_encoder.5.0.weight",
        "shape": [
          64,
          64,
          2
        ],
        "num_params": 8192,
        "requires_grad": false
      },
      {
        "name": "spatial_conv.1.weight",
        "shape": [
          4,
          1,
          60,
          1
        ],
        "num_params": 240,
        "requires_grad": true
      },
      {
        "name": "spatial_conv.1.bias",
        "shape": [
          4
        ],
        "num_params": 4,
        "requires_grad": true
      },
      {
        "name": "final_layer.1.weight",
        "shape": [
          2,
          768
        ],
        "num_params": 1536,
        "requires_grad": true
      },
      {
        "name": "final_layer.1.bias",
        "shape": [
          2
        ],
        "num_params": 2,
        "requires_grad": true
      }
    ],
    "n_trainable_params_final": 1782,
    "best_epoch": 48,
    "stopped_epoch": 50,
    "best_valid_loss": 0.376480115157316,
    "accuracy": 0.821826280623608,
    "balanced_accuracy": 0.8212187375942834,
    "confusion_matrix": [
      [
        174,
        46
      ],
      [
        34,
        195
      ]
    ],
    "prediction_histogram": [
      208,
      241
    ],
    "collapse_diagnostics": {
      "prediction_histogram": [
        208,
        241
      ],
      "collapse_ratio": 0.53674833,
      "collapse_threshold": 0.9,
      "collapse_flag": false,
      "majority_predicted_class": 1
    },
    "probability_diagnostics": {
      "available": true,
      "probability_shape": [
        449,
        2
      ],
      "mean_probability_by_class": [
        0.47109632,
        0.52890368
      ],
      "std_probability_by_class": [
        0.35475886,
        0.35475886
      ],
      "mean_confidence": 0.82434908,
      "std_confidence": 0.14658425,
      "mean_prediction_entropy": 0.38853463,
      "mean_normalized_prediction_entropy": 0.56053698,
      "mean_predicted_class_probability": 0.82434908
    },
    "spatial_conv_initial": {
      "available": true,
      "parameter_name": "spatial_conv.1.weight",
      "raw_weight_shape": [
        4,
        1,
        60,
        1
      ],
      "weight_matrix_shape": [
        4,
        60
      ],
      "n_virtual_filters": 4,
      "n_input_channels": 60,
      "channel_names": [
        "Fp1",
        "Fpz",
        "Fp2",
        "AF3",
        "AF4",
        "F7",
        "F5",
        "F3",
        "F1",
        "Fz",
        "F2",
        "F4",
        "F6",
        "F8",
        "FT7",
        "FC5",
        "FC3",
        "FC1",
        "FCz",
        "FC2",
        "FC4",
        "FC6",
        "FT8",
        "T7",
        "C5",
        "C3",
        "C1",
        "Cz",
        "C2",
        "C4",
        "C6",
        "T8",
        "TP7",
        "CP5",
        "CP3",
        "CP1",
        "CPz",
        "CP2",
        "CP4",
        "CP6",
        "TP8",
        "P7",
        "P5",
        "P3",
        "P1",
        "Pz",
        "P2",
        "P4",
        "P6",
        "P8",
        "PO7",
        "PO5",
        "PO3",
        "POz",
        "PO4",
        "PO6",
        "PO8",
        "O1",
        "Oz",
        "O2"
      ],
      "weight_matrix": [
        [
          0.09860362,
          0.02757107,
          -0.00453342,
          -0.04340911,
          0.02576071,
          0.06880875,
          0.0960246,
          0.04289424,
          -0.07277799,
          0.09152263,
          0.05239789,
          -0.08542095,
          0.01087321,
          0.12446697,
          -0.08788451,
          0.11290868,
          -0.05113648,
          0.00419681,
          0.00290361,
          0.03044201,
          -0.10243709,
          0.11921524,
          -0.03911539,
          0.04228823,
          0.10331213,
          0.08389606,
          -0.01665223,
          0.01591225,
          -0.03120496,
          0.06290273,
          -0.09196522,
          0.09813812,
          0.01074813,
          0.00808492,
          -0.07376412,
          -0.10413817,
          -0.062893,
          -0.06088749,
          -0.12183961,
          0.12901251,
          0.03479216,
          -0.07470614,
          0.05674176,
          0.12395246,
          -0.0290658,
          -0.05614749,
          -0.10394765,
          0.11709003,
          -0.08659275,
          0.09497562,
          -0.0239225,
          -0.07232979,
          0.01411721,
          -0.12062103,
          -0.10999423,
          0.0829183,
          0.06248488,
          0.06250216,
          0.12028129,
          -0.08014211
        ],
        [
          0.01009926,
          0.0087412,
          -0.00977896,
          0.08421583,
          0.04553671,
          0.11333744,
          0.0909525,
          -0.11484723,
          -0.11017934,
          0.05184568,
          0.05248089,
          0.11000124,
          -0.00147277,
          0.10807167,
          -0.01666692,
          -0.03505213,
          -0.07999703,
          0.09310645,
          0.0278822,
          0.12351443,
          0.03080638,
          -0.09881285,
          0.02723894,
          -0.00470403,
          -0.04697136,
          0.03006224,
          0.10474245,
          0.03595626,
          -0.04673435,
          0.08497576,
          -0.04740096,
          0.07026555,
          0.02335858,
          0.03381139,
          0.10128237,
          0.09403583,
          0.12373872,
          0.06473045,
          -0.09133916,
          0.06924331,
          -0.04601314,
          -0.05847561,
          0.0647402,
          0.08305502,
          -0.07227547,
          0.11441143,
          -0.05989631,
          -0.07397005,
          -0.10722409,
          -0.05097675,
          0.07102665,
          0.05539307,
          0.02983716,
          -0.09010918,
          -0.02183408,
          -0.11826871,
          -0.11102631,
          -0.03497604,
          -0.12786898,
          -0.03197727
        ],
        [
          0.04709473,
          0.02920434,
          -0.05418927,
          0.10976914,
          -0.12658985,
          0.00878382,
          -0.04467642,
          -0.04240006,
          -0.00666616,
          0.10525598,
          -0.0294892,
          0.08200011,
          0.09430724,
          -0.06121391,
          -0.00176534,
          0.06909451,
          0.10997215,
          0.08174603,
          -0.02376501,
          -0.07964359,
          -0.0774474,
          0.01633754,
          0.11415614,
          -0.06285675,
          0.0570755,
          0.02552816,
          0.07502529,
          -0.01806435,
          -0.05698903,
          -0.06936607,
          -0.03224508,
          0.09792642,
          -0.01748952,
          -0.00407872,
          -0.08633603,
          -0.05719286,
          0.07931304,
          0.02280134,
          -0.04839899,
          0.01430883,
          0.07498378,
          -0.10826348,
          -0.05108214,
          0.00344549,
          -0.0129722,
          0.12906928,
          0.10434645,
          -0.02263926,
          -0.11671187,
          -0.09633882,
          0.04830891,
          0.08607472,
          -0.08869911,
          0.01658894,
          -0.09075859,
          0.06495057,
          0.11313045,
          -0.09842119,
          -0.03621754,
          0.08533759
        ],
        [
          0.12180255,
          -0.00603986,
          0.11095531,
          -0.12369663,
          0.10324408,
          -0.04422085,
          -0.06285778,
          -0.00306022,
          -0.12783846,
          0.03429446,
          -0.01821135,
          -0.02381252,
          -0.07222682,
          0.06508011,
          -0.10177355,
          0.01723605,
          -0.03398101,
          0.05306143,
          0.003645,
          0.08476456,
          0.00781615,
          -0.10806764,
          -0.04963005,
          0.0397224,
          -0.03605769,
          -0.05288761,
          0.1004701,
          -0.08451293,
          -0.03914668,
          -0.02354313,
          -0.07526991,
          -0.00433752,
          0.01454157,
          -0.0221094,
          -0.11260715,
          0.03097835,
          0.1044676,
          -0.05688865,
          -0.01832165,
          -0.08687175,
          0.07566848,
          -0.05502742,
          -0.08429559,
          0.12045878,
          -0.05579505,
          0.04463868,
          -0.09179308,
          0.07205968,
          -0.04402351,
          0.1097022,
          0.02096228,
          0.10205078,
          0.03712666,
          0.10450509,
          0.01452936,
          -0.0240638,
          -0.08278716,
          0.02288513,
          -0.1179,
          0.06873485
        ]
      ],
      "weight_matrix_norm": [
        [
          0.76429504,
          0.21370848,
          -0.03513936,
          -0.33647209,
          0.19967607,
          0.53334945,
          0.7443046,
          0.33248127,
          -0.5641157,
          0.709409,
          0.40614581,
          -0.66211373,
          0.0842803,
          0.96476668,
          -0.68120921,
          0.87517619,
          -0.39636838,
          0.03253024,
          0.02250643,
          0.23596172,
          -0.79400897,
          0.92405951,
          -0.30319068,
          0.32778394,
          0.80079162,
          0.65029395,
          -0.12907457,
          0.12333881,
          -0.24187547,
          0.48757079,
          -0.71283954,
          0.76068687,
          0.08331078,
          0.06266774,
          -0.5717594,
          -0.80719429,
          -0.48749539,
          -0.47195029,
          -0.9444015,
          1.0,
          0.26968047,
          -0.57906121,
          0.43981594,
          0.96077865,
          -0.22529446,
          -0.43520969,
          -0.80571765,
          0.90758663,
          -0.67119652,
          0.73617375,
          -0.18542773,
          -0.56064165,
          0.10942513,
          -0.93495607,
          -0.85258579,
          0.64271522,
          0.48433191,
          0.4844659,
          0.93232274,
          -0.62119645
        ],
        [
          0.07898133,
          0.0683606,
          -0.07647642,
          0.65861034,
          0.35612008,
          0.88635606,
          0.71129447,
          -0.89816332,
          -0.8616581,
          0.40545943,
          0.41042706,
          0.8602652,
          -0.01151781,
          0.84517503,
          -0.13034372,
          -0.27412534,
          -0.62561715,
          0.72813946,
          0.21805291,
          0.96594518,
          0.24092142,
          -0.77276635,
          0.21302223,
          -0.03678788,
          -0.36733973,
          0.23510192,
          0.81913888,
          0.28119615,
          -0.3654862,
          0.6645534,
          -0.37069944,
          0.54951203,
          0.18267591,
          0.26442215,
          0.79207933,
          0.73540771,
          0.96769929,
          0.50622481,
          -0.71431839,
          0.54151767,
          -0.359846,
          -0.45730877,
          0.50630105,
          0.6495322,
          -0.56523073,
          0.89475513,
          -0.46841934,
          -0.57848316,
          -0.83854657,
          -0.39866391,
          0.55546427,
          0.43320179,
          0.23334166,
          -0.70469934,
          -0.17075349,
          -0.92492104,
          -0.86828178,
          -0.2735303,
          -1.0,
          -0.25007838
        ],
        [
          0.36487949,
          0.22626869,
          -0.41984639,
          0.85046679,
          -0.9807899,
          0.06805506,
          -0.34614295,
          -0.32850623,
          -0.05164793,
          0.81549978,
          -0.22847578,
          0.63531852,
          0.73067147,
          -0.47427171,
          -0.01367746,
          0.53532881,
          0.85203964,
          0.63334996,
          -0.18412602,
          -0.61706078,
          -0.60004514,
          0.12657964,
